// Bayesian network 
network "BNC" { //9 variables and 9 probability distributions
}
variable  "metric18" { //10 values
	type discrete[10] {  "(-inf-0.1878]"  "(0.1878-0.2746]"  "(0.2746-0.3614]"  "(0.3614-0.4482]"  "(0.4482-0.535]"  "(0.535-0.6218]"  "(0.6218-0.7086]"  "(0.7086-0.7954]"  "(0.7954-0.8822]"  "(0.8822-inf)" };
}
variable  "metric22" { //10 values
	type discrete[10] {  "(-inf-0.5922]"  "(0.5922-1.1844]"  "(1.1844-1.7766]"  "(1.7766-2.3688]"  "(2.3688-2.961]"  "(2.961-3.5532]"  "(3.5532-4.1454]"  "(4.1454-4.7376]"  "(4.7376-5.3298]"  "(5.3298-inf)" };
}
variable  "metric34" { //10 values
	type discrete[10] {  "(-inf-0.9351]"  "(0.9351-1.7492]"  "(1.7492-2.5633]"  "(2.5633-3.3774]"  "(3.3774-4.1915]"  "(4.1915-5.0056]"  "(5.0056-5.8197]"  "(5.8197-6.6338]"  "(6.6338-7.4479]"  "(7.4479-inf)" };
}
variable  "metric38" { //10 values
	type discrete[10] {  "(-inf-0.4074]"  "(0.4074-0.8148]"  "(0.8148-1.2222]"  "(1.2222-1.6296]"  "(1.6296-2.037]"  "(2.037-2.4444]"  "(2.4444-2.8518]"  "(2.8518-3.2592]"  "(3.2592-3.6666]"  "(3.6666-inf)" };
}
variable  "metric40" { //10 values
	type discrete[10] {  "(-inf-31.5]"  "(31.5-47]"  "(47-62.5]"  "(62.5-78]"  "(78-93.5]"  "(93.5-109]"  "(109-124.5]"  "(124.5-140]"  "(140-155.5]"  "(155.5-inf)" };
}
variable  "metric52" { //10 values
	type discrete[10] {  "(-inf-42.376]"  "(42.376-43.642]"  "(43.642-44.908]"  "(44.908-46.174]"  "(46.174-47.44]"  "(47.44-48.706]"  "(48.706-49.972]"  "(49.972-51.238]"  "(51.238-52.504]"  "(52.504-inf)" };
}
variable  "metric59" { //10 values
	type discrete[10] {  "(-inf-7.864]"  "(7.864-12.968]"  "(12.968-18.072]"  "(18.072-23.176]"  "(23.176-28.28]"  "(28.28-33.384]"  "(33.384-38.488]"  "(38.488-43.592]"  "(43.592-48.696]"  "(48.696-inf)" };
}
variable  "metric72" { //10 values
	type discrete[10] {  "(-inf-2.174]"  "(2.174-3.478]"  "(3.478-4.782]"  "(4.782-6.086]"  "(6.086-7.39]"  "(7.39-8.694]"  "(8.694-9.998]"  "(9.998-11.302]"  "(11.302-12.606]"  "(12.606-inf)" };
}
variable  "class" { //2 values
	type discrete[2] {  "0"  "1" };
}
probability (  "metric18"  "class" ) { //2 variable(s) and 20 values
	table 
		 0.711328125 0.7269736842105263 0.2625 0.24013157894736842 0.01640625 0.009868421052631578 0.0046875 0.003289473684210526 0.0015625 0.003289473684210526 7.8125E-4 0.003289473684210526 7.8125E-4 0.003289473684210526 3.90625E-4 0.003289473684210526 3.90625E-4 0.003289473684210526 0.001171875 0.003289473684210526;
}
probability (  "metric22"  "class"  "metric40" ) { //3 variable(s) and 200 values
	table 
		 0.9612068965517241 0.9572649572649573 0.9632352941176471 0.9287020109689214 0.9501187648456056 0.8964401294498382 0.9113924050632911 0.923469387755102 0.7959183673469388 0.47058823529411764 0.9379310344827586 0.8163265306122449 0.6896551724137931 0.782608695652174 0.65625 0.6153846153846154 0.6774193548387096 0.4375 0.1 0.1 0.004310344827586207 0.008547008547008548 0.014705882352941176 0.025594149908592323 0.021377672209026127 0.05177993527508091 0.046413502109704644 0.01020408163265306 0.04081632653061224 0.058823529411764705 0.006896551724137931 0.02040816326530612 0.034482758620689655 0.021739130434782608 0.03125 0.038461538461538464 0.03225806451612903 0.0625 0.1 0.1 0.004310344827586207 0.004273504273504274 0.004901960784313725 0.016453382084095063 0.0023752969121140144 0.025889967637540454 0.008438818565400843 0.02040816326530612 0.02040816326530612 0.058823529411764705 0.006896551724137931 0.02040816326530612 0.034482758620689655 0.021739130434782608 0.03125 0.038461538461538464 0.03225806451612903 0.0625 0.1 0.1 0.004310344827586207 0.004273504273504274 0.0024509803921568627 0.014625228519195612 0.007125890736342043 0.006472491909385114 0.008438818565400843 0.00510204081632653 0.02040816326530612 0.058823529411764705 0.006896551724137931 0.02040816326530612 0.034482758620689655 0.043478260869565216 0.0625 0.038461538461538464 0.03225806451612903 0.0625 0.1 0.1 0.004310344827586207 0.004273504273504274 0.0024509803921568627 0.003656307129798903 0.007125890736342043 0.003236245954692557 0.004219409282700422 0.01020408163265306 0.02040816326530612 0.058823529411764705 0.006896551724137931 0.02040816326530612 0.034482758620689655 0.021739130434782608 0.03125 0.07692307692307693 0.03225806451612903 0.0625 0.1 0.1 0.004310344827586207 0.004273504273504274 0.0024509803921568627 0.0018281535648994515 0.0023752969121140144 0.003236245954692557 0.004219409282700422 0.01020408163265306 0.02040816326530612 0.058823529411764705 0.006896551724137931 0.02040816326530612 0.034482758620689655 0.021739130434782608 0.03125 0.038461538461538464 0.03225806451612903 0.0625 0.1 0.1 0.004310344827586207 0.004273504273504274 0.0024509803921568627 0.003656307129798903 0.0023752969121140144 0.003236245954692557 0.004219409282700422 0.00510204081632653 0.02040816326530612 0.058823529411764705 0.006896551724137931 0.02040816326530612 0.034482758620689655 0.021739130434782608 0.0625 0.038461538461538464 0.03225806451612903 0.0625 0.1 0.1 0.004310344827586207 0.004273504273504274 0.0024509803921568627 0.0018281535648994515 0.0023752969121140144 0.003236245954692557 0.004219409282700422 0.00510204081632653 0.02040816326530612 0.058823529411764705 0.006896551724137931 0.02040816326530612 0.034482758620689655 0.021739130434782608 0.03125 0.038461538461538464 0.03225806451612903 0.0625 0.1 0.1 0.004310344827586207 0.004273504273504274 0.0024509803921568627 0.0018281535648994515 0.0023752969121140144 0.003236245954692557 0.004219409282700422 0.00510204081632653 0.02040816326530612 0.058823529411764705 0.006896551724137931 0.02040816326530612 0.034482758620689655 0.021739130434782608 0.03125 0.038461538461538464 0.03225806451612903 0.0625 0.1 0.1 0.004310344827586207 0.004273504273504274 0.0024509803921568627 0.0018281535648994515 0.0023752969121140144 0.003236245954692557 0.004219409282700422 0.00510204081632653 0.02040816326530612 0.058823529411764705 0.006896551724137931 0.02040816326530612 0.034482758620689655 0.021739130434782608 0.03125 0.038461538461538464 0.06451612903225806 0.0625 0.1 0.1;
}
probability (  "metric34"  "class"  "metric40" ) { //3 variable(s) and 200 values
	table 
		 0.004310344827586207 0.004273504273504274 0.0857843137254902 0.054844606946983544 0.004750593824228029 0.003236245954692557 0.004219409282700422 0.00510204081632653 0.02040816326530612 0.058823529411764705 0.013793103448275862 0.02040816326530612 0.034482758620689655 0.021739130434782608 0.03125 0.038461538461538464 0.03225806451612903 0.0625 0.1 0.1 0.004310344827586207 0.004273504273504274 0.10049019607843138 0.1206581352833638 0.0166270783847981 0.003236245954692557 0.008438818565400843 0.00510204081632653 0.02040816326530612 0.058823529411764705 0.006896551724137931 0.02040816326530612 0.06896551724137931 0.043478260869565216 0.03125 0.038461538461538464 0.03225806451612903 0.0625 0.1 0.1 0.2801724137931034 0.23076923076923078 0.3946078431372549 0.42413162705667273 0.5653206650831354 0.7055016181229773 0.8776371308016878 0.9540816326530612 0.8163265306122449 0.47058823529411764 0.006896551724137931 0.04081632653061224 0.20689655172413793 0.43478260869565216 0.6875 0.5769230769230769 0.6129032258064516 0.3125 0.1 0.1 0.47844827586206895 0.6794871794871795 0.3799019607843137 0.3692870201096892 0.38954869358669836 0.2621359223300971 0.08438818565400844 0.00510204081632653 0.02040816326530612 0.058823529411764705 0.14482758620689656 0.24489795918367346 0.20689655172413793 0.13043478260869565 0.03125 0.038461538461538464 0.12903225806451613 0.1875 0.1 0.1 0.21120689655172414 0.05982905982905983 0.02696078431372549 0.021937842778793418 0.011876484560570071 0.009708737864077669 0.004219409282700422 0.00510204081632653 0.02040816326530612 0.058823529411764705 0.7793103448275862 0.5510204081632653 0.27586206896551724 0.17391304347826086 0.0625 0.11538461538461539 0.03225806451612903 0.0625 0.1 0.1 0.004310344827586207 0.004273504273504274 0.0024509803921568627 0.0018281535648994515 0.0023752969121140144 0.003236245954692557 0.004219409282700422 0.00510204081632653 0.02040816326530612 0.058823529411764705 0.020689655172413793 0.04081632653061224 0.034482758620689655 0.021739130434782608 0.03125 0.038461538461538464 0.03225806451612903 0.0625 0.1 0.1 0.004310344827586207 0.004273504273504274 0.0024509803921568627 0.0018281535648994515 0.0023752969121140144 0.003236245954692557 0.004219409282700422 0.00510204081632653 0.02040816326530612 0.058823529411764705 0.006896551724137931 0.02040816326530612 0.034482758620689655 0.06521739130434782 0.03125 0.038461538461538464 0.03225806451612903 0.0625 0.1 0.1 0.004310344827586207 0.004273504273504274 0.0024509803921568627 0.0018281535648994515 0.0023752969121140144 0.003236245954692557 0.004219409282700422 0.00510204081632653 0.02040816326530612 0.058823529411764705 0.006896551724137931 0.02040816326530612 0.06896551724137931 0.06521739130434782 0.03125 0.038461538461538464 0.03225806451612903 0.0625 0.1 0.1 0.004310344827586207 0.004273504273504274 0.0024509803921568627 0.0018281535648994515 0.0023752969121140144 0.003236245954692557 0.004219409282700422 0.00510204081632653 0.02040816326530612 0.058823529411764705 0.006896551724137931 0.02040816326530612 0.034482758620689655 0.021739130434782608 0.03125 0.038461538461538464 0.03225806451612903 0.0625 0.1 0.1 0.004310344827586207 0.004273504273504274 0.0024509803921568627 0.0018281535648994515 0.0023752969121140144 0.003236245954692557 0.004219409282700422 0.00510204081632653 0.02040816326530612 0.058823529411764705 0.006896551724137931 0.02040816326530612 0.034482758620689655 0.021739130434782608 0.03125 0.038461538461538464 0.03225806451612903 0.0625 0.1 0.1;
}
probability (  "metric38"  "class"  "metric40" ) { //3 variable(s) and 200 values
	table 
		 0.02586206896551724 0.021367521367521368 0.0024509803921568627 0.0018281535648994515 0.0023752969121140144 0.003236245954692557 0.008438818565400843 0.00510204081632653 0.02040816326530612 0.058823529411764705 0.08275862068965517 0.10204081632653061 0.20689655172413793 0.2391304347826087 0.40625 0.4230769230769231 0.5483870967741935 0.3125 0.1 0.1 0.603448275862069 0.4700854700854701 0.5098039215686274 0.4606946983546618 0.342042755344418 0.284789644012945 0.18143459915611815 0.19387755102040816 0.08163265306122448 0.058823529411764705 0.6896551724137931 0.6122448979591837 0.27586206896551724 0.10869565217391304 0.0625 0.07692307692307693 0.03225806451612903 0.0625 0.1 0.1 0.33189655172413796 0.46153846153846156 0.4338235294117647 0.48811700182815354 0.6033254156769596 0.6537216828478964 0.7215189873417721 0.6581632653061225 0.7346938775510204 0.47058823529411764 0.1793103448275862 0.14285714285714285 0.20689655172413793 0.32608695652173914 0.28125 0.11538461538461539 0.0967741935483871 0.125 0.1 0.1 0.01293103448275862 0.021367521367521368 0.03676470588235294 0.031078610603290677 0.035629453681710214 0.03559870550161812 0.06329113924050633 0.10714285714285714 0.04081632653061224 0.058823529411764705 0.006896551724137931 0.02040816326530612 0.10344827586206896 0.10869565217391304 0.0625 0.038461538461538464 0.06451612903225806 0.125 0.1 0.1 0.004310344827586207 0.004273504273504274 0.004901960784313725 0.007312614259597806 0.004750593824228029 0.006472491909385114 0.004219409282700422 0.01020408163265306 0.02040816326530612 0.058823529411764705 0.006896551724137931 0.02040816326530612 0.034482758620689655 0.08695652173913043 0.03125 0.07692307692307693 0.0967741935483871 0.0625 0.1 0.1 0.004310344827586207 0.004273504273504274 0.0024509803921568627 0.0018281535648994515 0.0023752969121140144 0.003236245954692557 0.004219409282700422 0.00510204081632653 0.02040816326530612 0.058823529411764705 0.006896551724137931 0.02040816326530612 0.034482758620689655 0.021739130434782608 0.03125 0.11538461538461539 0.03225806451612903 0.0625 0.1 0.1 0.004310344827586207 0.004273504273504274 0.0024509803921568627 0.0018281535648994515 0.0023752969121140144 0.003236245954692557 0.004219409282700422 0.00510204081632653 0.02040816326530612 0.058823529411764705 0.006896551724137931 0.02040816326530612 0.034482758620689655 0.043478260869565216 0.03125 0.038461538461538464 0.03225806451612903 0.0625 0.1 0.1 0.004310344827586207 0.004273504273504274 0.0024509803921568627 0.0018281535648994515 0.0023752969121140144 0.003236245954692557 0.004219409282700422 0.00510204081632653 0.02040816326530612 0.058823529411764705 0.006896551724137931 0.02040816326530612 0.034482758620689655 0.021739130434782608 0.03125 0.038461538461538464 0.03225806451612903 0.0625 0.1 0.1 0.004310344827586207 0.004273504273504274 0.0024509803921568627 0.0018281535648994515 0.0023752969121140144 0.003236245954692557 0.004219409282700422 0.00510204081632653 0.02040816326530612 0.058823529411764705 0.006896551724137931 0.02040816326530612 0.034482758620689655 0.021739130434782608 0.03125 0.038461538461538464 0.03225806451612903 0.0625 0.1 0.1 0.004310344827586207 0.004273504273504274 0.0024509803921568627 0.003656307129798903 0.0023752969121140144 0.003236245954692557 0.004219409282700422 0.00510204081632653 0.02040816326530612 0.058823529411764705 0.006896551724137931 0.02040816326530612 0.034482758620689655 0.021739130434782608 0.03125 0.038461538461538464 0.03225806451612903 0.0625 0.1 0.1;
}
probability (  "metric40"  "class"  "metric18" ) { //3 variable(s) and 200 values
	table 
		 0.11038251366120219 0.02936857562408223 0.0392156862745098 0.09523809523809523 0.07692307692307693 0.09090909090909091 0.09090909090909091 0.1 0.1 0.08333333333333333 0.49130434782608695 0.2804878048780488 0.16666666666666666 0.1 0.1 0.1 0.1 0.1 0.1 0.1 0.10765027322404372 0.041116005873715125 0.0196078431372549 0.09523809523809523 0.07692307692307693 0.09090909090909091 0.09090909090909091 0.1 0.1 0.08333333333333333 0.13043478260869565 0.13414634146341464 0.08333333333333333 0.1 0.1 0.1 0.1 0.1 0.1 0.1 0.1918032786885246 0.06461086637298091 0.058823529411764705 0.09523809523809523 0.15384615384615385 0.09090909090909091 0.09090909090909091 0.1 0.1 0.16666666666666666 0.08260869565217391 0.024390243902439025 0.08333333333333333 0.1 0.1 0.1 0.1 0.1 0.1 0.1 0.23497267759562843 0.14977973568281938 0.0784313725490196 0.14285714285714285 0.15384615384615385 0.18181818181818182 0.09090909090909091 0.1 0.1 0.08333333333333333 0.11739130434782609 0.13414634146341464 0.08333333333333333 0.1 0.1 0.1 0.1 0.1 0.1 0.1 0.15191256830601094 0.18355359765051396 0.13725490196078433 0.19047619047619047 0.15384615384615385 0.09090909090909091 0.09090909090909091 0.1 0.1 0.08333333333333333 0.08695652173913043 0.04878048780487805 0.08333333333333333 0.1 0.1 0.1 0.1 0.1 0.1 0.1 0.11256830601092896 0.1262848751835536 0.13725490196078433 0.09523809523809523 0.07692307692307693 0.09090909090909091 0.18181818181818182 0.1 0.1 0.16666666666666666 0.0391304347826087 0.10975609756097561 0.08333333333333333 0.1 0.1 0.1 0.1 0.1 0.1 0.1 0.055191256830601096 0.17914831130690162 0.13725490196078433 0.047619047619047616 0.07692307692307693 0.09090909090909091 0.09090909090909091 0.1 0.1 0.08333333333333333 0.030434782608695653 0.18292682926829268 0.16666666666666666 0.1 0.1 0.1 0.1 0.1 0.1 0.1 0.03114754098360656 0.17180616740088106 0.2549019607843137 0.14285714285714285 0.07692307692307693 0.09090909090909091 0.09090909090909091 0.1 0.1 0.08333333333333333 0.013043478260869565 0.06097560975609756 0.08333333333333333 0.1 0.1 0.1 0.1 0.1 0.1 0.1 0.003278688524590164 0.04405286343612335 0.11764705882352941 0.047619047619047616 0.07692307692307693 0.09090909090909091 0.09090909090909091 0.1 0.1 0.08333333333333333 0.004347826086956522 0.012195121951219513 0.08333333333333333 0.1 0.1 0.1 0.1 0.1 0.1 0.1 0.001092896174863388 0.010279001468428781 0.0196078431372549 0.047619047619047616 0.07692307692307693 0.09090909090909091 0.09090909090909091 0.1 0.1 0.08333333333333333 0.004347826086956522 0.012195121951219513 0.08333333333333333 0.1 0.1 0.1 0.1 0.1 0.1 0.1;
}
probability (  "metric52"  "class"  "metric40" ) { //3 variable(s) and 200 values
	table 
		 0.004310344827586207 0.004273504273504274 0.0024509803921568627 0.005484460694698354 0.011876484560570071 0.025889967637540454 0.012658227848101266 0.00510204081632653 0.02040816326530612 0.058823529411764705 0.006896551724137931 0.02040816326530612 0.034482758620689655 0.021739130434782608 0.03125 0.038461538461538464 0.03225806451612903 0.0625 0.1 0.1 0.004310344827586207 0.004273504273504274 0.0024509803921568627 0.003656307129798903 0.0023752969121140144 0.003236245954692557 0.004219409282700422 0.00510204081632653 0.02040816326530612 0.058823529411764705 0.006896551724137931 0.02040816326530612 0.034482758620689655 0.021739130434782608 0.03125 0.038461538461538464 0.03225806451612903 0.0625 0.1 0.1 0.004310344827586207 0.004273504273504274 0.0024509803921568627 0.0018281535648994515 0.0023752969121140144 0.003236245954692557 0.004219409282700422 0.00510204081632653 0.02040816326530612 0.058823529411764705 0.006896551724137931 0.02040816326530612 0.034482758620689655 0.021739130434782608 0.03125 0.038461538461538464 0.03225806451612903 0.0625 0.1 0.1 0.004310344827586207 0.004273504273504274 0.0024509803921568627 0.0018281535648994515 0.0023752969121140144 0.009708737864077669 0.012658227848101266 0.00510204081632653 0.02040816326530612 0.058823529411764705 0.006896551724137931 0.02040816326530612 0.034482758620689655 0.021739130434782608 0.03125 0.038461538461538464 0.03225806451612903 0.0625 0.1 0.1 0.004310344827586207 0.004273504273504274 0.0024509803921568627 0.009140767824497258 0.0023752969121140144 0.006472491909385114 0.0379746835443038 0.09183673469387756 0.04081632653061224 0.11764705882352941 0.006896551724137931 0.02040816326530612 0.034482758620689655 0.021739130434782608 0.03125 0.038461538461538464 0.03225806451612903 0.0625 0.1 0.1 0.2629310344827586 0.43162393162393164 0.23284313725490197 0.13711151736745886 0.1543942992874109 0.12944983818770225 0.03375527426160337 0.05102040816326531 0.02040816326530612 0.058823529411764705 0.10344827586206896 0.061224489795918366 0.1724137931034483 0.08695652173913043 0.0625 0.07692307692307693 0.03225806451612903 0.0625 0.1 0.1 0.6982758620689655 0.5213675213675214 0.28921568627450983 0.20109689213893966 0.29453681710213775 0.23300970873786409 0.14345991561181434 0.05612244897959184 0.061224489795918366 0.058823529411764705 0.8413793103448276 0.7755102040816326 0.4482758620689655 0.41304347826086957 0.59375 0.15384615384615385 0.03225806451612903 0.0625 0.1 0.1 0.008620689655172414 0.017094017094017096 0.031862745098039214 0.012797074954296161 0.007125890736342043 0.02912621359223301 0.08438818565400844 0.09183673469387756 0.061224489795918366 0.058823529411764705 0.006896551724137931 0.02040816326530612 0.034482758620689655 0.10869565217391304 0.0625 0.038461538461538464 0.06451612903225806 0.0625 0.1 0.1 0.004310344827586207 0.004273504273504274 0.3088235294117647 0.33455210237659966 0.32304038004750596 0.45307443365695793 0.43037974683544306 0.32653061224489793 0.32653061224489793 0.11764705882352941 0.006896551724137931 0.02040816326530612 0.06896551724137931 0.10869565217391304 0.0625 0.23076923076923078 0.41935483870967744 0.25 0.1 0.1 0.004310344827586207 0.004273504273504274 0.125 0.29250457038391225 0.1995249406175772 0.10679611650485436 0.23628691983122363 0.3622448979591837 0.40816326530612246 0.35294117647058826 0.006896551724137931 0.02040816326530612 0.10344827586206896 0.17391304347826086 0.0625 0.3076923076923077 0.2903225806451613 0.25 0.1 0.1;
}
probability (  "metric59"  "class"  "metric52" ) { //3 variable(s) and 200 values
	table 
		 0.04 0.09090909090909091 0.1 0.07142857142857142 0.047619047619047616 0.0175054704595186 0.08190224570673713 0.025 0.028534370946822308 0.026915113871635612 0.1 0.1 0.1 0.1 0.1 0.05714285714285714 0.1506849315068493 0.0625 0.05555555555555555 0.02631578947368421 0.28 0.09090909090909091 0.1 0.07142857142857142 0.047619047619047616 0.38293216630196936 0.4134742404227213 0.325 0.42282749675745784 0.2525879917184265 0.1 0.1 0.1 0.1 0.1 0.2857142857142857 0.5981735159817352 0.25 0.1388888888888889 0.47368421052631576 0.16 0.09090909090909091 0.1 0.2857142857142857 0.09523809523809523 0.2844638949671772 0.28269484808454426 0.325 0.21660181582360571 0.22981366459627328 0.1 0.1 0.1 0.1 0.1 0.14285714285714285 0.1187214611872146 0.25 0.3333333333333333 0.15789473684210525 0.16 0.18181818181818182 0.1 0.07142857142857142 0.2857142857142857 0.1400437636761488 0.11228533685601057 0.175 0.17509727626459143 0.14078674948240166 0.1 0.1 0.1 0.1 0.1 0.08571428571428572 0.1004566210045662 0.0625 0.25 0.05263157894736842 0.12 0.09090909090909091 0.1 0.07142857142857142 0.23809523809523808 0.08971553610503283 0.0488771466314399 0.0625 0.05966277561608301 0.053830227743271224 0.1 0.1 0.1 0.1 0.1 0.2571428571428571 0.0091324200913242 0.0625 0.05555555555555555 0.02631578947368421 0.08 0.09090909090909091 0.1 0.14285714285714285 0.14285714285714285 0.045951859956236324 0.023778071334214 0.0375 0.03631647211413749 0.07867494824016563 0.1 0.1 0.1 0.1 0.1 0.05714285714285714 0.0045662100456621 0.0625 0.05555555555555555 0.13157894736842105 0.04 0.09090909090909091 0.1 0.07142857142857142 0.047619047619047616 0.0262582056892779 0.015852047556142668 0.0125 0.03372243839169909 0.11594202898550725 0.1 0.1 0.1 0.1 0.1 0.02857142857142857 0.0045662100456621 0.0625 0.027777777777777776 0.02631578947368421 0.04 0.09090909090909091 0.1 0.07142857142857142 0.047619047619047616 0.006564551422319475 0.010568031704095112 0.0125 0.014267185473411154 0.041407867494824016 0.1 0.1 0.1 0.1 0.1 0.02857142857142857 0.0045662100456621 0.0625 0.027777777777777776 0.02631578947368421 0.04 0.09090909090909091 0.1 0.07142857142857142 0.023809523809523808 0.00437636761487965 0.009247027741083224 0.0125 0.007782101167315175 0.039337474120082816 0.1 0.1 0.1 0.1 0.1 0.02857142857142857 0.0045662100456621 0.0625 0.027777777777777776 0.05263157894736842 0.04 0.09090909090909091 0.1 0.07142857142857142 0.023809523809523808 0.002188183807439825 0.001321003963011889 0.0125 0.005188067444876783 0.020703933747412008 0.1 0.1 0.1 0.1 0.1 0.02857142857142857 0.0045662100456621 0.0625 0.027777777777777776 0.02631578947368421;
}
probability (  "metric72"  "class"  "metric34" ) { //3 variable(s) and 200 values
	table 
		 0.8783783783783784 0.9262295081967213 0.9057406094968108 0.7608938547486034 0.7551020408163265 0.1 0.1 0.1 0.1 0.1 0.18181818181818182 0.25 0.8478260869565217 0.7321428571428571 0.8484848484848485 0.3076923076923077 0.25 0.15384615384615385 0.1 0.1 0.013513513513513514 0.00819672131147541 0.05244507441530829 0.0659217877094972 0.07142857142857142 0.1 0.1 0.1 0.1 0.1 0.09090909090909091 0.08333333333333333 0.05434782608695652 0.08928571428571429 0.05454545454545454 0.07692307692307693 0.08333333333333333 0.07692307692307693 0.1 0.1 0.013513513513513514 0.00819672131147541 0.014174344436569808 0.05921787709497207 0.07142857142857142 0.1 0.1 0.1 0.1 0.1 0.09090909090909091 0.08333333333333333 0.021739130434782608 0.017857142857142856 0.030303030303030304 0.07692307692307693 0.08333333333333333 0.15384615384615385 0.1 0.1 0.013513513513513514 0.00819672131147541 0.013465627214741318 0.03910614525139665 0.030612244897959183 0.1 0.1 0.1 0.1 0.1 0.09090909090909091 0.08333333333333333 0.010869565217391304 0.03571428571428571 0.012121212121212121 0.07692307692307693 0.08333333333333333 0.07692307692307693 0.1 0.1 0.013513513513513514 0.00819672131147541 0.009213323883770375 0.04581005586592179 0.02040816326530612 0.1 0.1 0.1 0.1 0.1 0.09090909090909091 0.08333333333333333 0.010869565217391304 0.03571428571428571 0.024242424242424242 0.07692307692307693 0.08333333333333333 0.07692307692307693 0.1 0.1 0.013513513513513514 0.00819672131147541 0.001417434443656981 0.0111731843575419 0.01020408163265306 0.1 0.1 0.1 0.1 0.1 0.09090909090909091 0.08333333333333333 0.010869565217391304 0.017857142857142856 0.006060606060606061 0.07692307692307693 0.08333333333333333 0.07692307692307693 0.1 0.1 0.013513513513513514 0.00819672131147541 7.087172218284905E-4 0.004469273743016759 0.01020408163265306 0.1 0.1 0.1 0.1 0.1 0.09090909090909091 0.08333333333333333 0.010869565217391304 0.017857142857142856 0.006060606060606061 0.07692307692307693 0.08333333333333333 0.15384615384615385 0.1 0.1 0.013513513513513514 0.00819672131147541 0.001417434443656981 0.008938547486033519 0.01020408163265306 0.1 0.1 0.1 0.1 0.1 0.09090909090909091 0.08333333333333333 0.010869565217391304 0.017857142857142856 0.006060606060606061 0.07692307692307693 0.08333333333333333 0.07692307692307693 0.1 0.1 0.013513513513513514 0.00819672131147541 7.087172218284905E-4 0.0022346368715083797 0.01020408163265306 0.1 0.1 0.1 0.1 0.1 0.09090909090909091 0.08333333333333333 0.010869565217391304 0.017857142857142856 0.006060606060606061 0.07692307692307693 0.08333333333333333 0.07692307692307693 0.1 0.1 0.013513513513513514 0.00819672131147541 7.087172218284905E-4 0.0022346368715083797 0.01020408163265306 0.1 0.1 0.1 0.1 0.1 0.09090909090909091 0.08333333333333333 0.010869565217391304 0.017857142857142856 0.006060606060606061 0.07692307692307693 0.08333333333333333 0.07692307692307693 0.1 0.1;
}
probability (  "class" ) { //1 variable(s) and 2 values
	table 
		0.8963457484188334	// p(0 | evidence )
		0.10365425158116655; 	// p(1 | evidence );
}
